digraph Tree {
node [shape=box, style="filled, rounded", color="black", fontname=helvetica] ;
edge [fontname=helvetica] ;
0 [label="petal length (cm) <= 2.45\ngini = 0.66\nsamples = 97\nvalue = [55, 49, 46]\nclass = setosa", fillcolor="#fdf8f3"] ;
1 [label="gini = 0.0\nsamples = 35\nvalue = [55, 0, 0]\nclass = setosa", fillcolor="#e58139"] ;
0 -> 1 [labeldistance=2.5, labelangle=45, headlabel="True"] ;
2 [label="petal length (cm) <= 4.75\ngini = 0.5\nsamples = 62\nvalue = [0, 49, 46]\nclass = versicolor", fillcolor="#f3fdf7"] ;
0 -> 2 [labeldistance=2.5, labelangle=-45, headlabel="False"] ;
3 [label="gini = 0.0\nsamples = 31\nvalue = [0, 47, 0]\nclass = versicolor", fillcolor="#39e581"] ;
2 -> 3 ;
4 [label="sepal length (cm) <= 5.95\ngini = 0.08\nsamples = 31\nvalue = [0, 2, 46]\nclass = virginica", fillcolor="#8642e6"] ;
2 -> 4 ;
5 [label="sepal width (cm) <= 3.0\ngini = 0.41\nsamples = 4\nvalue = [0, 2, 5]\nclass = virginica", fillcolor="#b388ef"] ;
4 -> 5 ;
6 [label="gini = 0.0\nsamples = 3\nvalue = [0, 0, 5]\nclass = virginica", fillcolor="#8139e5"] ;
5 -> 6 ;
7 [label="gini = 0.0\nsamples = 1\nvalue = [0, 2, 0]\nclass = versicolor", fillcolor="#39e581"] ;
5 -> 7 ;
8 [label="gini = 0.0\nsamples = 27\nvalue = [0, 0, 41]\nclass = virginica", fillcolor="#8139e5"] ;
4 -> 8 ;
}